digraph Tree {
node [shape=box, style="filled, rounded", color="black", fontname=helvetica] ;
edge [fontname=helvetica] ;
0 [label="ap_hi_(140, 160] <= 0.5\ngini = 0.5\nsamples = 70000\nvalue = [35021, 34979]", fillcolor="#ffffff"] ;
1 [label="ap_hi_(120, 140] <= 0.5\ngini = 0.496\nsamples = 62034\nvalue = [33877, 28157]", fillcolor="#fbeade"] ;
0 -> 1 [labeldistance=2.5, labelangle=45, headlabel="True"] ;
2 [label="ap_hi_(160, 180] <= 0.5\ngini = 0.451\nsamples = 42666\nvalue = [28043, 14623]", fillcolor="#f3c3a0"] ;
1 -> 2 ;
3 [label="gini = 0.437\nsamples = 41106\nvalue = [27849, 13257]", fillcolor="#f1bd97"] ;
2 -> 3 ;
4 [label="gini = 0.218\nsamples = 1560\nvalue = [194, 1366]", fillcolor="#55abe9"] ;
2 -> 4 ;
5 [label="cholesterol_3 <= 0.5\ngini = 0.421\nsamples = 19368\nvalue = [5834, 13534]", fillcolor="#8ec7f0"] ;
1 -> 5 ;
6 [label="gini = 0.44\nsamples = 15681\nvalue = [5128, 10553]", fillcolor="#99cdf2"] ;
5 -> 6 ;
7 [label="gini = 0.31\nsamples = 3687\nvalue = [706, 2981]", fillcolor="#68b4eb"] ;
5 -> 7 ;
8 [label="Age_(45, 50] <= 0.5\ngini = 0.246\nsamples = 7966\nvalue = [1144, 6822]", fillcolor="#5aade9"] ;
0 -> 8 [labeldistance=2.5, labelangle=-45, headlabel="False"] ;
9 [label="cholesterol_1 <= 0.5\ngini = 0.25\nsamples = 6798\nvalue = [995, 5803]", fillcolor="#5baee9"] ;
8 -> 9 ;
10 [label="gini = 0.241\nsamples = 2624\nvalue = [367, 2257]", fillcolor="#59ade9"] ;
9 -> 10 ;
11 [label="gini = 0.256\nsamples = 4174\nvalue = [628, 3546]", fillcolor="#5caeea"] ;
9 -> 11 ;
12 [label="cholesterol_3 <= 0.5\ngini = 0.223\nsamples = 1168\nvalue = [149, 1019]", fillcolor="#56abe9"] ;
8 -> 12 ;
13 [label="gini = 0.21\nsamples = 1041\nvalue = [124, 917]", fillcolor="#54aae9"] ;
12 -> 13 ;
14 [label="gini = 0.316\nsamples = 127\nvalue = [25, 102]", fillcolor="#6ab5eb"] ;
12 -> 14 ;
}